<?xml version="1.0"?>
<opencv_storage>
<stage18>
  <maxWeakCount>12</maxWeakCount>
  <stageThreshold>-1.1608608961105347e+00</stageThreshold>
  <weakClassifiers>
    <_>
      <internalNodes>
        0 -1 217191 -1.6470297705382109e-03</internalNodes>
      <leafValues>
        5.6407183408737183e-01 -3.3103448152542114e-01</leafValues></_>
    <_>
      <internalNodes>
        0 -1 159464 -4.3201856315135956e-02</internalNodes>
      <leafValues>
        4.0522962808609009e-01 -4.4111526012420654e-01</leafValues></_>
    <_>
      <internalNodes>
        0 -1 207898 -5.8433637022972107e-02</internalNodes>
      <leafValues>
        7.3360288143157959e-01 -2.3101507127285004e-01</leafValues></_>
    <_>
      <internalNodes>
        0 -1 58681 2.4799541570246220e-03</internalNodes>
      <leafValues>
        -4.1052705049514771e-01 4.1108310222625732e-01</leafValues></_>
    <_>
      <internalNodes>
        0 -1 214425 3.6215307191014290e-03</internalNodes>
      <leafValues>
        -2.4095360934734344e-01 5.0023990869522095e-01</leafValues></_>
    <_>
      <internalNodes>
        0 -1 153060 5.0381282344460487e-03</internalNodes>
      <leafValues>
        1.9042997062206268e-01 -7.3649674654006958e-01</leafValues></_>
    <_>
      <internalNodes>
        0 -1 19802 2.4867543834261596e-04</internalNodes>
      <leafValues>
        1.3678617775440216e-01 -7.6075035333633423e-01</leafValues></_>
    <_>
      <internalNodes>
        0 -1 269165 5.5623375810682774e-03</internalNodes>
      <leafValues>
        -2.0411199331283569e-01 6.8967050313949585e-01</leafValues></_>
    <_>
      <internalNodes>
        0 -1 210825 1.2690404430031776e-02</internalNodes>
      <leafValues>
        -2.7243375778198242e-01 4.7893154621124268e-01</leafValues></_>
    <_>
      <internalNodes>
        0 -1 227803 -2.6780318468809128e-02</internalNodes>
      <leafValues>
        4.9856710433959961e-01 -2.4250812828540802e-01</leafValues></_>
    <_>
      <internalNodes>
        0 -1 56355 -4.2193327099084854e-03</internalNodes>
      <leafValues>
        2.3885384202003479e-01 -5.4786658287048340e-01</leafValues></_>
    <_>
      <internalNodes>
        0 -1 278129 -5.0493353046476841e-03</internalNodes>
      <leafValues>
        6.2257802486419678e-01 -2.4833787977695465e-01</leafValues></_></weakClassifiers></stage18>
</opencv_storage>
