<?xml version="1.0"?>
<opencv_storage>
<stage19>
  <maxWeakCount>14</maxWeakCount>
  <stageThreshold>-9.5248836278915405e-01</stageThreshold>
  <weakClassifiers>
    <_>
      <internalNodes>
        0 -1 269518 -2.1511716768145561e-03</internalNodes>
      <leafValues>
        4.5115810632705688e-01 -5.5303031206130981e-01</leafValues></_>
    <_>
      <internalNodes>
        0 -1 262558 -2.0445667207241058e-02</internalNodes>
      <leafValues>
        4.0201511979103088e-01 -2.7753621339797974e-01</leafValues></_>
    <_>
      <internalNodes>
        0 -1 289256 -7.7165421098470688e-03</internalNodes>
      <leafValues>
        7.7347469329833984e-01 -1.4436317980289459e-01</leafValues></_>
    <_>
      <internalNodes>
        0 -1 289775 -1.3002732302993536e-03</internalNodes>
      <leafValues>
        5.3689724206924438e-01 -2.4367289245128632e-01</leafValues></_>
    <_>
      <internalNodes>
        0 -1 135874 2.6511555188335478e-04</internalNodes>
      <leafValues>
        -3.2222613692283630e-01 3.8433536887168884e-01</leafValues></_>
    <_>
      <internalNodes>
        0 -1 278648 -1.0601547546684742e-02</internalNodes>
      <leafValues>
        4.8048919439315796e-01 -2.1305410563945770e-01</leafValues></_>
    <_>
      <internalNodes>
        0 -1 277369 5.7600461877882481e-04</internalNodes>
      <leafValues>
        -1.9420631229877472e-01 3.9015850424766541e-01</leafValues></_>
    <_>
      <internalNodes>
        0 -1 280329 -7.5990380719304085e-04</internalNodes>
      <leafValues>
        2.6117348670959473e-01 -3.3161669969558716e-01</leafValues></_>
    <_>
      <internalNodes>
        0 -1 227160 -4.3914671987295151e-03</internalNodes>
      <leafValues>
        1.3138172030448914e-01 -6.9471794366836548e-01</leafValues></_>
    <_>
      <internalNodes>
        0 -1 280583 -3.0054885428398848e-03</internalNodes>
      <leafValues>
        4.6734070777893066e-01 -2.2798444330692291e-01</leafValues></_>
    <_>
      <internalNodes>
        0 -1 270480 -2.0414403115864843e-04</internalNodes>
      <leafValues>
        -1.7181253433227539e-01 5.0221532583236694e-01</leafValues></_>
    <_>
      <internalNodes>
        0 -1 304063 1.6270584892481565e-03</internalNodes>
      <leafValues>
        1.4331659674644470e-01 -6.4676570892333984e-01</leafValues></_>
    <_>
      <internalNodes>
        0 -1 250840 -8.4755674470216036e-04</internalNodes>
      <leafValues>
        8.2557898759841919e-01 -1.3313145935535431e-01</leafValues></_>
    <_>
      <internalNodes>
        0 -1 286682 6.6586453467607498e-03</internalNodes>
      <leafValues>
        -1.1406590789556503e-01 6.4553791284561157e-01</leafValues></_></weakClassifiers></stage19>
</opencv_storage>
