<?xml version="1.0"?>
<opencv_storage>
<stage1>
  <maxWeakCount>9</maxWeakCount>
  <stageThreshold>-9.1420722007751465e-01</stageThreshold>
  <weakClassifiers>
    <_>
      <internalNodes>
        0 -1 256525 -1.7474293708801270e-02</internalNodes>
      <leafValues>
        7.6623374223709106e-01 -4.7141042351722717e-01</leafValues></_>
    <_>
      <internalNodes>
        0 -1 102678 -2.5247052311897278e-02</internalNodes>
      <leafValues>
        6.9073337316513062e-01 -3.2225748896598816e-01</leafValues></_>
    <_>
      <internalNodes>
        0 -1 200882 -4.9134986475110054e-03</internalNodes>
      <leafValues>
        6.5002846717834473e-01 -2.8877970576286316e-01</leafValues></_>
    <_>
      <internalNodes>
        0 -1 216993 6.6698985174298286e-03</internalNodes>
      <leafValues>
        -3.3212754130363464e-01 5.7611870765686035e-01</leafValues></_>
    <_>
      <internalNodes>
        0 -1 167797 -4.8118624836206436e-03</internalNodes>
      <leafValues>
        5.7747930288314819e-01 -2.6671504974365234e-01</leafValues></_>
    <_>
      <internalNodes>
        0 -1 258275 1.6631159232929349e-03</internalNodes>
      <leafValues>
        -4.2453506588935852e-01 4.4147959351539612e-01</leafValues></_>
    <_>
      <internalNodes>
        0 -1 37567 -3.2049749046564102e-02</internalNodes>
      <leafValues>
        5.1280194520950317e-01 -2.6824119687080383e-01</leafValues></_>
    <_>
      <internalNodes>
        0 -1 57738 -1.6642870381474495e-02</internalNodes>
      <leafValues>
        4.1339606046676636e-01 -3.4133553504943848e-01</leafValues></_>
    <_>
      <internalNodes>
        0 -1 311557 -1.1953348293900490e-03</internalNodes>
      <leafValues>
        -6.8631917238235474e-01 1.8044850230216980e-01</leafValues></_></weakClassifiers></stage1>
</opencv_storage>
