<?xml version="1.0"?>
<opencv_storage>
<stage18>
  <maxWeakCount>17</maxWeakCount>
  <stageThreshold>-9.3428140878677368e-01</stageThreshold>
  <weakClassifiers>
    <_>
      <internalNodes>
        0 -1 203397 3.2243849709630013e-03</internalNodes>
      <leafValues>
        -1.4452214539051056e-01 6.2787353992462158e-01</leafValues></_>
    <_>
      <internalNodes>
        0 -1 140474 1.6538580879569054e-02</internalNodes>
      <leafValues>
        -2.5342142581939697e-01 4.2254501581192017e-01</leafValues></_>
    <_>
      <internalNodes>
        0 -1 216644 -9.6984822303056717e-03</internalNodes>
      <leafValues>
        4.9314555525779724e-01 -2.1417634189128876e-01</leafValues></_>
    <_>
      <internalNodes>
        0 -1 157842 4.3618627823889256e-03</internalNodes>
      <leafValues>
        -2.5901705026626587e-01 4.1254511475563049e-01</leafValues></_>
    <_>
      <internalNodes>
        0 -1 281731 -1.3370806118473411e-04</internalNodes>
      <leafValues>
        -3.4880310297012329e-01 2.6598566770553589e-01</leafValues></_>
    <_>
      <internalNodes>
        0 -1 177053 -5.4600285366177559e-03</internalNodes>
      <leafValues>
        6.1236071586608887e-01 -1.9426703453063965e-01</leafValues></_>
    <_>
      <internalNodes>
        0 -1 173351 6.0207070782780647e-03</internalNodes>
      <leafValues>
        2.5563955307006836e-01 -4.7978317737579346e-01</leafValues></_>
    <_>
      <internalNodes>
        0 -1 271504 1.7871956515591592e-04</internalNodes>
      <leafValues>
        2.1968615055084229e-01 -3.6459222435951233e-01</leafValues></_>
    <_>
      <internalNodes>
        0 -1 149117 1.6034045256674290e-04</internalNodes>
      <leafValues>
        2.0788286626338959e-01 -3.9684176445007324e-01</leafValues></_>
    <_>
      <internalNodes>
        0 -1 164144 -3.0088113271631300e-04</internalNodes>
      <leafValues>
        -4.7113311290740967e-01 1.5912003815174103e-01</leafValues></_>
    <_>
      <internalNodes>
        0 -1 131074 -7.1818465366959572e-03</internalNodes>
      <leafValues>
        5.2261209487915039e-01 -1.7848858237266541e-01</leafValues></_>
    <_>
      <internalNodes>
        0 -1 155801 8.9646331616677344e-05</internalNodes>
      <leafValues>
        -2.7288559079170227e-01 3.1182396411895752e-01</leafValues></_>
    <_>
      <internalNodes>
        0 -1 73715 -1.7137408256530762e-02</internalNodes>
      <leafValues>
        -6.5589457750320435e-01 1.1562520265579224e-01</leafValues></_>
    <_>
      <internalNodes>
        0 -1 219142 -1.2025712057948112e-02</internalNodes>
      <leafValues>
        5.7370638847351074e-01 -1.5828868746757507e-01</leafValues></_>
    <_>
      <internalNodes>
        0 -1 281083 -3.3850090112537146e-03</internalNodes>
      <leafValues>
        4.1942188143730164e-01 -1.9421261548995972e-01</leafValues></_>
    <_>
      <internalNodes>
        0 -1 181201 4.0591410361230373e-03</internalNodes>
      <leafValues>
        -2.9780325293540955e-01 2.6063054800033569e-01</leafValues></_>
    <_>
      <internalNodes>
        0 -1 127053 -6.5454142168164253e-03</internalNodes>
      <leafValues>
        -8.3277088403701782e-01 1.0878206789493561e-01</leafValues></_></weakClassifiers></stage18>
</opencv_storage>
