<?xml version="1.0"?>
<opencv_storage>
<stage14>
  <maxWeakCount>13</maxWeakCount>
  <stageThreshold>-1.0512551069259644e+00</stageThreshold>
  <weakClassifiers>
    <_>
      <internalNodes>
        0 -1 238035 -3.5289570223540068e-04</internalNodes>
      <leafValues>
        5.5738669633865356e-01 -3.5753175616264343e-01</leafValues></_>
    <_>
      <internalNodes>
        0 -1 171422 6.1459792777895927e-03</internalNodes>
      <leafValues>
        -4.3413215875625610e-01 3.6554667353630066e-01</leafValues></_>
    <_>
      <internalNodes>
        0 -1 290493 4.9568340182304382e-03</internalNodes>
      <leafValues>
        -2.3449085652828217e-01 5.5948472023010254e-01</leafValues></_>
    <_>
      <internalNodes>
        0 -1 281922 2.7350252494215965e-03</internalNodes>
      <leafValues>
        -2.1553803980350494e-01 7.2145563364028931e-01</leafValues></_>
    <_>
      <internalNodes>
        0 -1 74747 -3.5104965791106224e-03</internalNodes>
      <leafValues>
        -7.3450076580047607e-01 2.0778998732566833e-01</leafValues></_>
    <_>
      <internalNodes>
        0 -1 211289 -2.4595115333795547e-02</internalNodes>
      <leafValues>
        7.4530315399169922e-01 -1.7885808646678925e-01</leafValues></_>
    <_>
      <internalNodes>
        0 -1 234771 -7.5472877360880375e-03</internalNodes>
      <leafValues>
        6.3606142997741699e-01 -2.3687009513378143e-01</leafValues></_>
    <_>
      <internalNodes>
        0 -1 156469 -4.9358647316694260e-02</internalNodes>
      <leafValues>
        3.7314432859420776e-01 -3.1786793470382690e-01</leafValues></_>
    <_>
      <internalNodes>
        0 -1 163334 -7.4129402637481689e-03</internalNodes>
      <leafValues>
        3.7827914953231812e-01 -3.5239353775978088e-01</leafValues></_>
    <_>
      <internalNodes>
        0 -1 135143 -4.8982195556163788e-02</internalNodes>
      <leafValues>
        5.7001960277557373e-01 -2.1517366170883179e-01</leafValues></_>
    <_>
      <internalNodes>
        0 -1 167001 2.7350676245987415e-03</internalNodes>
      <leafValues>
        -2.2836589813232422e-01 5.2938526868820190e-01</leafValues></_>
    <_>
      <internalNodes>
        0 -1 170036 4.7187437303364277e-04</internalNodes>
      <leafValues>
        -2.9447627067565918e-01 3.9933484792709351e-01</leafValues></_>
    <_>
      <internalNodes>
        0 -1 281141 2.0630653016269207e-03</internalNodes>
      <leafValues>
        2.1346497535705566e-01 -6.0175520181655884e-01</leafValues></_></weakClassifiers></stage14>
</opencv_storage>
