<?xml version="1.0"?>
<opencv_storage>
<stage13>
  <maxWeakCount>12</maxWeakCount>
  <stageThreshold>-1.2238032817840576e+00</stageThreshold>
  <weakClassifiers>
    <_>
      <internalNodes>
        0 -1 192745 -3.8625843822956085e-02</internalNodes>
      <leafValues>
        5.5950266122817993e-01 -3.4759357571601868e-01</leafValues></_>
    <_>
      <internalNodes>
        0 -1 4991 -1.0347628965973854e-02</internalNodes>
      <leafValues>
        5.1726758480072021e-01 -2.9715713858604431e-01</leafValues></_>
    <_>
      <internalNodes>
        0 -1 177948 -1.8475703895092010e-02</internalNodes>
      <leafValues>
        2.5513908267021179e-01 -6.6587704420089722e-01</leafValues></_>
    <_>
      <internalNodes>
        0 -1 65697 -2.9659615829586983e-02</internalNodes>
      <leafValues>
        2.3940196633338928e-01 -5.5556708574295044e-01</leafValues></_>
    <_>
      <internalNodes>
        0 -1 269502 -4.2874282225966454e-03</internalNodes>
      <leafValues>
        7.3253899812698364e-01 -1.8724747002124786e-01</leafValues></_>
    <_>
      <internalNodes>
        0 -1 270485 5.3519476205110550e-03</internalNodes>
      <leafValues>
        -3.0931165814399719e-01 5.5494850873947144e-01</leafValues></_>
    <_>
      <internalNodes>
        0 -1 281735 6.1374474316835403e-03</internalNodes>
      <leafValues>
        -1.7739132046699524e-01 8.0870211124420166e-01</leafValues></_>
    <_>
      <internalNodes>
        0 -1 146014 -2.4394433945417404e-02</internalNodes>
      <leafValues>
        6.9749021530151367e-01 -1.8087099492549896e-01</leafValues></_>
    <_>
      <internalNodes>
        0 -1 221168 -1.4572709333151579e-03</internalNodes>
      <leafValues>
        4.6910452842712402e-01 -3.0344232916831970e-01</leafValues></_>
    <_>
      <internalNodes>
        0 -1 281320 -1.2431946583092213e-02</internalNodes>
      <leafValues>
        7.3622298240661621e-01 -1.5619227290153503e-01</leafValues></_>
    <_>
      <internalNodes>
        0 -1 188737 -5.9300223365426064e-03</internalNodes>
      <leafValues>
        8.0240494012832642e-01 -1.3387659192085266e-01</leafValues></_>
    <_>
      <internalNodes>
        0 -1 283145 -1.8750149756669998e-03</internalNodes>
      <leafValues>
        -7.5503474473953247e-01 1.8361467123031616e-01</leafValues></_></weakClassifiers></stage13>
</opencv_storage>
