<?xml version="1.0"?>
<opencv_storage>
<stage5>
  <maxWeakCount>10</maxWeakCount>
  <stageThreshold>-1.0331581830978394e+00</stageThreshold>
  <weakClassifiers>
    <_>
      <internalNodes>
        0 -1 237491 4.6469802036881447e-03</internalNodes>
      <leafValues>
        -4.2812499403953552e-01 6.3602483272552490e-01</leafValues></_>
    <_>
      <internalNodes>
        0 -1 111124 -2.2418430075049400e-02</internalNodes>
      <leafValues>
        5.7433575391769409e-01 -3.8784328103065491e-01</leafValues></_>
    <_>
      <internalNodes>
        0 -1 112638 -3.9911206811666489e-02</internalNodes>
      <leafValues>
        4.8144990205764771e-01 -4.1161316633224487e-01</leafValues></_>
    <_>
      <internalNodes>
        0 -1 103464 -8.9687863364815712e-03</internalNodes>
      <leafValues>
        4.4792434573173523e-01 -3.6296379566192627e-01</leafValues></_>
    <_>
      <internalNodes>
        0 -1 278825 -7.6657244935631752e-03</internalNodes>
      <leafValues>
        6.8140488862991333e-01 -2.5991606712341309e-01</leafValues></_>
    <_>
      <internalNodes>
        0 -1 266463 5.1250573247671127e-02</internalNodes>
      <leafValues>
        -2.2763347625732422e-01 7.8150463104248047e-01</leafValues></_>
    <_>
      <internalNodes>
        0 -1 214545 -3.6031667143106461e-02</internalNodes>
      <leafValues>
        3.9455649256706238e-01 -4.4047245383262634e-01</leafValues></_>
    <_>
      <internalNodes>
        0 -1 198220 1.3486746698617935e-02</internalNodes>
      <leafValues>
        -6.0309284925460815e-01 2.6892828941345215e-01</leafValues></_>
    <_>
      <internalNodes>
        0 -1 280044 -6.7180423066020012e-03</internalNodes>
      <leafValues>
        5.6283134222030640e-01 -2.6394635438919067e-01</leafValues></_>
    <_>
      <internalNodes>
        0 -1 148312 4.1598132811486721e-03</internalNodes>
      <leafValues>
        -2.3376423120498657e-01 5.8736407756805420e-01</leafValues></_></weakClassifiers></stage5>
</opencv_storage>
