<?xml version="1.0"?>
<opencv_storage>
<stage18>
  <maxWeakCount>10</maxWeakCount>
  <stageThreshold>-1.1214607954025269e+00</stageThreshold>
  <weakClassifiers>
    <_>
      <internalNodes>
        0 -1 140588 3.0715828761458397e-03</internalNodes>
      <leafValues>
        5.7182782888412476e-01 -5.9219086170196533e-01</leafValues></_>
    <_>
      <internalNodes>
        0 -1 217009 -6.8658939562737942e-03</internalNodes>
      <leafValues>
        4.4759935140609741e-01 -4.5940041542053223e-01</leafValues></_>
    <_>
      <internalNodes>
        0 -1 123504 -1.0172093287110329e-02</internalNodes>
      <leafValues>
        4.3377146124839783e-01 -4.6512153744697571e-01</leafValues></_>
    <_>
      <internalNodes>
        0 -1 174503 5.2005369216203690e-03</internalNodes>
      <leafValues>
        -5.5871784687042236e-01 2.5415027141571045e-01</leafValues></_>
    <_>
      <internalNodes>
        0 -1 91799 -3.5758562386035919e-02</internalNodes>
      <leafValues>
        2.1554768085479736e-01 -5.4871141910552979e-01</leafValues></_>
    <_>
      <internalNodes>
        0 -1 14136 -1.1590076610445976e-03</internalNodes>
      <leafValues>
        -4.9454140663146973e-01 2.2814789414405823e-01</leafValues></_>
    <_>
      <internalNodes>
        0 -1 257223 7.8452816524077207e-05</internalNodes>
      <leafValues>
        -4.1868749260902405e-01 2.7110686898231506e-01</leafValues></_>
    <_>
      <internalNodes>
        0 -1 250348 -1.1017782613635063e-02</internalNodes>
      <leafValues>
        4.5390391349792480e-01 -2.9698193073272705e-01</leafValues></_>
    <_>
      <internalNodes>
        0 -1 222630 4.5021526515483856e-02</internalNodes>
      <leafValues>
        -1.5708427131175995e-01 6.6623854637145996e-01</leafValues></_>
    <_>
      <internalNodes>
        0 -1 202810 -3.6114214453846216e-03</internalNodes>
      <leafValues>
        4.6509391069412231e-01 -2.8135943412780762e-01</leafValues></_></weakClassifiers></stage18>
</opencv_storage>
