<?xml version="1.0"?>
<opencv_storage>
<stage15>
  <maxWeakCount>11</maxWeakCount>
  <stageThreshold>-1.2959921360015869e+00</stageThreshold>
  <weakClassifiers>
    <_>
      <internalNodes>
        0 -1 220606 1.8523508682847023e-02</internalNodes>
      <leafValues>
        -3.5974642634391785e-01 6.0345894098281860e-01</leafValues></_>
    <_>
      <internalNodes>
        0 -1 272756 -7.0783528499305248e-03</internalNodes>
      <leafValues>
        4.5701390504837036e-01 -4.4431403279304504e-01</leafValues></_>
    <_>
      <internalNodes>
        0 -1 127473 1.6063906252384186e-02</internalNodes>
      <leafValues>
        2.1193093061447144e-01 -7.0175093412399292e-01</leafValues></_>
    <_>
      <internalNodes>
        0 -1 272166 5.3150691092014313e-03</internalNodes>
      <leafValues>
        -1.8032091856002808e-01 7.4342405796051025e-01</leafValues></_>
    <_>
      <internalNodes>
        0 -1 139553 2.0620945841073990e-02</internalNodes>
      <leafValues>
        -3.2131999731063843e-01 5.7184845209121704e-01</leafValues></_>
    <_>
      <internalNodes>
        0 -1 133482 -1.2104663997888565e-02</internalNodes>
      <leafValues>
        8.3211666345596313e-01 -1.6575679183006287e-01</leafValues></_>
    <_>
      <internalNodes>
        0 -1 147545 1.0101909749209881e-02</internalNodes>
      <leafValues>
        -2.2696477174758911e-01 6.7738664150238037e-01</leafValues></_>
    <_>
      <internalNodes>
        0 -1 279786 -5.2443975582718849e-03</internalNodes>
      <leafValues>
        5.4457992315292358e-01 -2.5162020325660706e-01</leafValues></_>
    <_>
      <internalNodes>
        0 -1 280085 9.3876859173178673e-03</internalNodes>
      <leafValues>
        -1.9480291008949280e-01 5.9991687536239624e-01</leafValues></_>
    <_>
      <internalNodes>
        0 -1 124898 -6.7581082694232464e-03</internalNodes>
      <leafValues>
        7.6813775300979614e-01 -1.3886569440364838e-01</leafValues></_>
    <_>
      <internalNodes>
        0 -1 157700 -8.4770601242780685e-03</internalNodes>
      <leafValues>
        6.3551425933837891e-01 -1.7808623611927032e-01</leafValues></_></weakClassifiers></stage15>
</opencv_storage>
