<?xml version="1.0"?>
<opencv_storage>
<stage12>
  <maxWeakCount>10</maxWeakCount>
  <stageThreshold>-1.1181286573410034e+00</stageThreshold>
  <weakClassifiers>
    <_>
      <internalNodes>
        0 -1 149780 -7.6468503102660179e-03</internalNodes>
      <leafValues>
        7.6867032051086426e-01 -8.1597223877906799e-02</leafValues></_>
    <_>
      <internalNodes>
        0 -1 223976 -1.2757809599861503e-03</internalNodes>
      <leafValues>
        -5.1942467689514160e-01 4.0088671445846558e-01</leafValues></_>
    <_>
      <internalNodes>
        0 -1 85985 1.6386561095714569e-02</internalNodes>
      <leafValues>
        -3.8130480051040649e-01 4.3038791418075562e-01</leafValues></_>
    <_>
      <internalNodes>
        0 -1 38571 -2.1784201264381409e-02</internalNodes>
      <leafValues>
        2.9920285940170288e-01 -5.9879970550537109e-01</leafValues></_>
    <_>
      <internalNodes>
        0 -1 141420 3.9805667474865913e-03</internalNodes>
      <leafValues>
        -3.2026517391204834e-01 5.5647009611129761e-01</leafValues></_>
    <_>
      <internalNodes>
        0 -1 149091 -2.5369146838784218e-02</internalNodes>
      <leafValues>
        7.9941761493682861e-01 -2.3750154674053192e-01</leafValues></_>
    <_>
      <internalNodes>
        0 -1 259984 -7.6492521911859512e-03</internalNodes>
      <leafValues>
        8.0252182483673096e-01 -1.6763211786746979e-01</leafValues></_>
    <_>
      <internalNodes>
        0 -1 121507 -2.5606751441955566e-02</internalNodes>
      <leafValues>
        6.2450188398361206e-01 -2.6656615734100342e-01</leafValues></_>
    <_>
      <internalNodes>
        0 -1 170034 -5.9727961197495461e-03</internalNodes>
      <leafValues>
        8.7077987194061279e-01 -1.4351603388786316e-01</leafValues></_>
    <_>
      <internalNodes>
        0 -1 248191 5.9938966296613216e-03</internalNodes>
      <leafValues>
        -3.1381964683532715e-01 5.2158367633819580e-01</leafValues></_></weakClassifiers></stage12>
</opencv_storage>
