<?xml version="1.0"?>
<opencv_storage>
<stage2>
  <maxWeakCount>11</maxWeakCount>
  <stageThreshold>-8.5774075984954834e-01</stageThreshold>
  <weakClassifiers>
    <_>
      <internalNodes>
        0 -1 266636 6.1298623681068420e-02</internalNodes>
      <leafValues>
        -2.4373576045036316e-01 7.0262390375137329e-01</leafValues></_>
    <_>
      <internalNodes>
        0 -1 224378 -2.5841163471341133e-02</internalNodes>
      <leafValues>
        6.3922303915023804e-01 -3.6244249343872070e-01</leafValues></_>
    <_>
      <internalNodes>
        0 -1 43062 -4.0316574275493622e-02</internalNodes>
      <leafValues>
        6.0407316684722900e-01 -3.4376567602157593e-01</leafValues></_>
    <_>
      <internalNodes>
        0 -1 266003 -4.5296221971511841e-02</internalNodes>
      <leafValues>
        8.6416101455688477e-01 -1.6865369677543640e-01</leafValues></_>
    <_>
      <internalNodes>
        0 -1 167028 -1.3118729926645756e-02</internalNodes>
      <leafValues>
        8.1965661048889160e-01 -2.7331563830375671e-01</leafValues></_>
    <_>
      <internalNodes>
        0 -1 102144 1.5999060124158859e-03</internalNodes>
      <leafValues>
        -4.2645180225372314e-01 3.2565361261367798e-01</leafValues></_>
    <_>
      <internalNodes>
        0 -1 150439 -4.1578914970159531e-03</internalNodes>
      <leafValues>
        7.0007038116455078e-01 -1.9953528046607971e-01</leafValues></_>
    <_>
      <internalNodes>
        0 -1 267269 7.9274363815784454e-03</internalNodes>
      <leafValues>
        -1.8864744901657104e-01 7.3865908384323120e-01</leafValues></_>
    <_>
      <internalNodes>
        0 -1 255692 -5.9824474155902863e-02</internalNodes>
      <leafValues>
        6.6791409254074097e-01 -2.0953208208084106e-01</leafValues></_>
    <_>
      <internalNodes>
        0 -1 282270 6.4495636615902185e-04</internalNodes>
      <leafValues>
        -2.9227143526077271e-01 4.6385267376899719e-01</leafValues></_>
    <_>
      <internalNodes>
        0 -1 225123 7.6115445699542761e-04</internalNodes>
      <leafValues>
        1.9889947772026062e-01 -6.5737396478652954e-01</leafValues></_></weakClassifiers></stage2>
</opencv_storage>
