<?xml version="1.0"?>
<opencv_storage>
<stage3>
  <maxWeakCount>11</maxWeakCount>
  <stageThreshold>-1.4145504236221313e+00</stageThreshold>
  <weakClassifiers>
    <_>
      <internalNodes>
        0 -1 20669 -2.7157299220561981e-02</internalNodes>
      <leafValues>
        6.2781459093093872e-01 -2.6756757497787476e-01</leafValues></_>
    <_>
      <internalNodes>
        0 -1 256521 -2.4123527109622955e-02</internalNodes>
      <leafValues>
        4.7060334682464600e-01 -4.7409799695014954e-01</leafValues></_>
    <_>
      <internalNodes>
        0 -1 163223 -2.5781171862035990e-03</internalNodes>
      <leafValues>
        3.8047894835472107e-01 -4.9882605671882629e-01</leafValues></_>
    <_>
      <internalNodes>
        0 -1 272086 5.0277175614610314e-04</internalNodes>
      <leafValues>
        -6.1335873603820801e-01 2.5760734081268311e-01</leafValues></_>
    <_>
      <internalNodes>
        0 -1 278134 -6.7193233408033848e-03</internalNodes>
      <leafValues>
        6.5952205657958984e-01 -2.6031404733657837e-01</leafValues></_>
    <_>
      <internalNodes>
        0 -1 266003 3.7439897656440735e-02</internalNodes>
      <leafValues>
        -3.2766047120094299e-01 7.3939150571823120e-01</leafValues></_>
    <_>
      <internalNodes>
        0 -1 145264 4.6377748250961304e-02</internalNodes>
      <leafValues>
        -1.8419732153415680e-01 6.9830334186553955e-01</leafValues></_>
    <_>
      <internalNodes>
        0 -1 192089 1.0410852730274200e-02</internalNodes>
      <leafValues>
        -5.2342176437377930e-01 3.3622774481773376e-01</leafValues></_>
    <_>
      <internalNodes>
        0 -1 120651 -7.2947300970554352e-02</internalNodes>
      <leafValues>
        7.3238486051559448e-01 -1.9864535331726074e-01</leafValues></_>
    <_>
      <internalNodes>
        0 -1 189238 2.0244144834578037e-03</internalNodes>
      <leafValues>
        2.1054336428642273e-01 -6.8860852718353271e-01</leafValues></_>
    <_>
      <internalNodes>
        0 -1 271580 -3.6766804754734039e-02</internalNodes>
      <leafValues>
        7.3384892940521240e-01 -2.0370596647262573e-01</leafValues></_></weakClassifiers></stage3>
</opencv_storage>
