<?xml version="1.0"?>
<opencv_storage>
<cascade>
  <stageType>BOOST</stageType>
  <featureType>HAAR</featureType>
  <height>40</height>
  <width>20</width>
  <stageParams>
    <boostType>GAB</boostType>
    <minHitRate>9.9500000476837158e-01</minHitRate>
    <maxFalseAlarm>5.0000000000000000e-01</maxFalseAlarm>
    <weightTrimRate>9.4999999999999996e-01</weightTrimRate>
    <maxDepth>1</maxDepth>
    <maxWeakCount>100</maxWeakCount></stageParams>
  <featureParams>
    <maxCatCount>0</maxCatCount>
    <featSize>1</featSize>
    <mode>BASIC</mode></featureParams>
  <stageNum>2</stageNum>
  <stages>
    <!-- stage 0 -->
    <_>
      <maxWeakCount>3</maxWeakCount>
      <stageThreshold>-7.6695740222930908e-01</stageThreshold>
      <weakClassifiers>
        <_>
          <internalNodes>
            0 -1 5 -1.3848041184246540e-02</internalNodes>
          <leafValues>
            8.6411386728286743e-01 -7.4573487043380737e-01</leafValues></_>
        <_>
          <internalNodes>
            0 -1 2 -1.6954641789197922e-02</internalNodes>
          <leafValues>
            8.5404896736145020e-01 -6.1159718036651611e-01</leafValues></_>
        <_>
          <internalNodes>
            0 -1 1 -1.4418935403227806e-02</internalNodes>
          <leafValues>
            5.9037464857101440e-01 -5.8803063631057739e-01</leafValues></_></weakClassifiers></_>
    <!-- stage 1 -->
    <_>
      <maxWeakCount>5</maxWeakCount>
      <stageThreshold>-1.5725653171539307e+00</stageThreshold>
      <weakClassifiers>
        <_>
          <internalNodes>
            0 -1 7 -3.9445580914616585e-03</internalNodes>
          <leafValues>
            8.6839234828948975e-01 -5.0794559717178345e-01</leafValues></_>
        <_>
          <internalNodes>
            0 -1 3 -2.1427098661661148e-02</internalNodes>
          <leafValues>
            7.7394574880599976e-01 -5.8767807483673096e-01</leafValues></_>
        <_>
          <internalNodes>
            0 -1 0 -1.8965672701597214e-02</internalNodes>
          <leafValues>
            6.1158365011215210e-01 -5.7216942310333252e-01</leafValues></_>
        <_>
          <internalNodes>
            0 -1 4 1.8438275903463364e-02</internalNodes>
          <leafValues>
            -5.2122890949249268e-01 5.8889430761337280e-01</leafValues></_>
        <_>
          <internalNodes>
            0 -1 6 -1.8176466692239046e-03</internalNodes>
          <leafValues>
            4.0868580341339111e-01 -5.6729644536972046e-01</leafValues></_></weakClassifiers></_></stages>
  <features>
    <_>
      <rects>
        <_>
          1 5 18 3 -1.</_>
        <_>
          7 5 6 3 3.</_></rects>
      <tilted>0</tilted></_>
    <_>
      <rects>
        <_>
          2 32 15 4 -1.</_>
        <_>
          7 32 5 4 3.</_></rects>
      <tilted>0</tilted></_>
    <_>
      <rects>
        <_>
          3 16 6 8 -1.</_>
        <_>
          5 16 2 8 3.</_></rects>
      <tilted>0</tilted></_>
    <_>
      <rects>
        <_>
          3 16 6 9 -1.</_>
        <_>
          5 16 2 9 3.</_></rects>
      <tilted>0</tilted></_>
    <_>
      <rects>
        <_>
          6 32 7 8 -1.</_>
        <_>
          6 36 7 4 2.</_></rects>
      <tilted>0</tilted></_>
    <_>
      <rects>
        <_>
          11 16 6 9 -1.</_>
        <_>
          13 16 2 9 3.</_></rects>
      <tilted>0</tilted></_>
    <_>
      <rects>
        <_>
          12 17 2 7 -1.</_>
        <_>
          13 17 1 7 2.</_></rects>
      <tilted>0</tilted></_>
    <_>
      <rects>
        <_>
          12 18 3 5 -1.</_>
        <_>
          13 18 1 5 3.</_></rects>
      <tilted>0</tilted></_></features></cascade>
</opencv_storage>
