<?xml version="1.0"?>
<opencv_storage>
<stage12>
  <maxWeakCount>19</maxWeakCount>
  <stageThreshold>-9.4127392768859863e-01</stageThreshold>
  <weakClassifiers>
    <_>
      <internalNodes>
        0 -1 260883 1.1915118433535099e-02</internalNodes>
      <leafValues>
        5.8923996984958649e-02 6.3113993406295776e-01</leafValues></_>
    <_>
      <internalNodes>
        0 -1 253241 -4.7831535339355469e-02</internalNodes>
      <leafValues>
        7.1046447753906250e-01 -1.0559650510549545e-01</leafValues></_>
    <_>
      <internalNodes>
        0 -1 282264 -1.3580679660663009e-04</internalNodes>
      <leafValues>
        -5.5964070558547974e-01 1.7746576666831970e-01</leafValues></_>
    <_>
      <internalNodes>
        0 -1 280314 -2.1526557393372059e-03</internalNodes>
      <leafValues>
        4.8179441690444946e-01 -1.9452583789825439e-01</leafValues></_>
    <_>
      <internalNodes>
        0 -1 279744 -2.1393564529716969e-03</internalNodes>
      <leafValues>
        4.9694767594337463e-01 -2.3711773753166199e-01</leafValues></_>
    <_>
      <internalNodes>
        0 -1 271730 -3.3000856637954712e-03</internalNodes>
      <leafValues>
        6.4161068201065063e-01 -1.5696905553340912e-01</leafValues></_>
    <_>
      <internalNodes>
        0 -1 230425 -1.6443774104118347e-02</internalNodes>
      <leafValues>
        5.9678715467453003e-01 -1.2710160017013550e-01</leafValues></_>
    <_>
      <internalNodes>
        0 -1 271813 -3.7935558706521988e-02</internalNodes>
      <leafValues>
        5.7838112115859985e-01 -1.4410404860973358e-01</leafValues></_>
    <_>
      <internalNodes>
        0 -1 172048 -1.2033777311444283e-03</internalNodes>
      <leafValues>
        4.3863743543624878e-01 -2.0555527508258820e-01</leafValues></_>
    <_>
      <internalNodes>
        0 -1 269150 2.1566054783761501e-03</internalNodes>
      <leafValues>
        -1.4967684447765350e-01 5.0519770383834839e-01</leafValues></_>
    <_>
      <internalNodes>
        0 -1 290266 -3.4962389618158340e-03</internalNodes>
      <leafValues>
        5.1282238960266113e-01 -1.3547468185424805e-01</leafValues></_>
    <_>
      <internalNodes>
        0 -1 280319 -3.3560027368366718e-03</internalNodes>
      <leafValues>
        3.4985163807868958e-01 -2.0673526823520660e-01</leafValues></_>
    <_>
      <internalNodes>
        0 -1 256978 -2.9192790389060974e-02</internalNodes>
      <leafValues>
        -9.1871011257171631e-01 8.4365427494049072e-02</leafValues></_>
    <_>
      <internalNodes>
        0 -1 275613 -5.8575416915118694e-03</internalNodes>
      <leafValues>
        3.0538094043731689e-01 -2.8673541545867920e-01</leafValues></_>
    <_>
      <internalNodes>
        0 -1 288351 3.5580061376094818e-04</internalNodes>
      <leafValues>
        1.1929752677679062e-01 -5.9769135713577271e-01</leafValues></_>
    <_>
      <internalNodes>
        0 -1 300986 -3.0319839715957642e-02</internalNodes>
      <leafValues>
        5.1267296075820923e-01 -1.3980074226856232e-01</leafValues></_>
    <_>
      <internalNodes>
        0 -1 232536 -1.0294888168573380e-02</internalNodes>
      <leafValues>
        7.9014956951141357e-01 -6.9023132324218750e-02</leafValues></_>
    <_>
      <internalNodes>
        0 -1 214884 -1.5437023714184761e-02</internalNodes>
      <leafValues>
        2.8069919347763062e-01 -2.7959728240966797e-01</leafValues></_>
    <_>
      <internalNodes>
        0 -1 233304 -2.1562161855399609e-03</internalNodes>
      <leafValues>
        3.3390995860099792e-01 -1.9030411541461945e-01</leafValues></_></weakClassifiers></stage12>
</opencv_storage>
