<?xml version="1.0"?>
<opencv_storage>
<stage0>
  <maxWeakCount>5</maxWeakCount>
  <stageThreshold>-1.3771317005157471e+00</stageThreshold>
  <weakClassifiers>
    <_>
      <internalNodes>
        0 -1 215822 -1.3778627850115299e-02</internalNodes>
      <leafValues>
        7.7106112241744995e-01 -6.4604318141937256e-01</leafValues></_>
    <_>
      <internalNodes>
        0 -1 38757 -6.3568716868758202e-03</internalNodes>
      <leafValues>
        6.7707687616348267e-01 -6.7380142211914062e-01</leafValues></_>
    <_>
      <internalNodes>
        0 -1 153234 -5.1118291914463043e-02</internalNodes>
      <leafValues>
        5.4874360561370850e-01 -6.4389169216156006e-01</leafValues></_>
    <_>
      <internalNodes>
        0 -1 41998 -3.3286690711975098e-02</internalNodes>
      <leafValues>
        6.3322496414184570e-01 -4.8682540655136108e-01</leafValues></_>
    <_>
      <internalNodes>
        0 -1 216453 5.5887959897518158e-03</internalNodes>
      <leafValues>
        -3.4367424249649048e-01 6.9157546758651733e-01</leafValues></_></weakClassifiers></stage0>
</opencv_storage>
