<?xml version="1.0"?>
<opencv_storage>
<stage15>
  <maxWeakCount>13</maxWeakCount>
  <stageThreshold>-1.0498080253601074e+00</stageThreshold>
  <weakClassifiers>
    <_>
      <internalNodes>
        0 -1 209752 -2.0984797738492489e-03</internalNodes>
      <leafValues>
        5.3775215148925781e-01 -3.5533979535102844e-01</leafValues></_>
    <_>
      <internalNodes>
        0 -1 199456 8.3511192351579666e-03</internalNodes>
      <leafValues>
        -4.9562901258468628e-01 2.9722565412521362e-01</leafValues></_>
    <_>
      <internalNodes>
        0 -1 289251 3.9854701608419418e-03</internalNodes>
      <leafValues>
        -1.9988648593425751e-01 5.8208233118057251e-01</leafValues></_>
    <_>
      <internalNodes>
        0 -1 277412 2.6980962604284286e-02</internalNodes>
      <leafValues>
        -1.6167369484901428e-01 7.1545904874801636e-01</leafValues></_>
    <_>
      <internalNodes>
        0 -1 280312 1.7994819208979607e-03</internalNodes>
      <leafValues>
        -1.6817855834960938e-01 6.4126831293106079e-01</leafValues></_>
    <_>
      <internalNodes>
        0 -1 261061 3.7742080166935921e-04</internalNodes>
      <leafValues>
        -2.4058659374713898e-01 4.6676051616668701e-01</leafValues></_>
    <_>
      <internalNodes>
        0 -1 246006 -1.8643345683813095e-03</internalNodes>
      <leafValues>
        -6.1071223020553589e-01 1.8275679647922516e-01</leafValues></_>
    <_>
      <internalNodes>
        0 -1 239701 -3.4574752207845449e-03</internalNodes>
      <leafValues>
        -8.4526497125625610e-01 9.9192492663860321e-02</leafValues></_>
    <_>
      <internalNodes>
        0 -1 260339 -2.4046213366091251e-03</internalNodes>
      <leafValues>
        -8.0149906873703003e-01 1.1263786256313324e-01</leafValues></_>
    <_>
      <internalNodes>
        0 -1 272173 2.5654695928096771e-03</internalNodes>
      <leafValues>
        -2.6760753989219666e-01 3.6037936806678772e-01</leafValues></_>
    <_>
      <internalNodes>
        0 -1 261639 -1.5580116771161556e-02</internalNodes>
      <leafValues>
        8.9054918289184570e-01 -1.2307818233966827e-01</leafValues></_>
    <_>
      <internalNodes>
        0 -1 223153 -2.9908349737524986e-02</internalNodes>
      <leafValues>
        7.4478834867477417e-01 -1.1627898365259171e-01</leafValues></_>
    <_>
      <internalNodes>
        0 -1 262342 -1.8872113898396492e-02</internalNodes>
      <leafValues>
        5.2851724624633789e-01 -1.9326905906200409e-01</leafValues></_></weakClassifiers></stage15>
</opencv_storage>
