<?xml version="1.0"?>
<opencv_storage>
<stage5>
  <maxWeakCount>14</maxWeakCount>
  <stageThreshold>-1.4702839851379395e+00</stageThreshold>
  <weakClassifiers>
    <_>
      <internalNodes>
        0 -1 41944 -6.2526784837245941e-02</internalNodes>
      <leafValues>
        6.7128843069076538e-01 -3.8335645198822021e-01</leafValues></_>
    <_>
      <internalNodes>
        0 -1 270151 -4.8414184711873531e-03</internalNodes>
      <leafValues>
        5.2314007282257080e-01 -4.4455012679100037e-01</leafValues></_>
    <_>
      <internalNodes>
        0 -1 182984 -7.5820004567503929e-03</internalNodes>
      <leafValues>
        5.2504950761795044e-01 -4.3996739387512207e-01</leafValues></_>
    <_>
      <internalNodes>
        0 -1 104019 4.0477253496646881e-03</internalNodes>
      <leafValues>
        -3.5243332386016846e-01 5.7071417570114136e-01</leafValues></_>
    <_>
      <internalNodes>
        0 -1 198189 1.1333424597978592e-02</internalNodes>
      <leafValues>
        -4.8764637112617493e-01 3.4781801700592041e-01</leafValues></_>
    <_>
      <internalNodes>
        0 -1 207281 -5.5880978703498840e-02</internalNodes>
      <leafValues>
        2.8532123565673828e-01 -5.1175588369369507e-01</leafValues></_>
    <_>
      <internalNodes>
        0 -1 85247 -3.0352052301168442e-02</internalNodes>
      <leafValues>
        2.5976309180259705e-01 -5.0714308023452759e-01</leafValues></_>
    <_>
      <internalNodes>
        0 -1 116618 -8.9767053723335266e-03</internalNodes>
      <leafValues>
        2.8192013502120972e-01 -4.5132642984390259e-01</leafValues></_>
    <_>
      <internalNodes>
        0 -1 148309 5.3337644785642624e-03</internalNodes>
      <leafValues>
        -2.2582150995731354e-01 6.1472564935684204e-01</leafValues></_>
    <_>
      <internalNodes>
        0 -1 146763 -1.4428955502808094e-02</internalNodes>
      <leafValues>
        7.9540556669235229e-01 -1.4359934628009796e-01</leafValues></_>
    <_>
      <internalNodes>
        0 -1 257935 1.8154131248593330e-03</internalNodes>
      <leafValues>
        -2.9016453027725220e-01 3.6031636595726013e-01</leafValues></_>
    <_>
      <internalNodes>
        0 -1 198149 -1.4681707136332989e-02</internalNodes>
      <leafValues>
        5.3818911314010620e-01 -1.9986017048358917e-01</leafValues></_>
    <_>
      <internalNodes>
        0 -1 278808 -6.5170759335160255e-03</internalNodes>
      <leafValues>
        6.4923804998397827e-01 -1.4390665292739868e-01</leafValues></_>
    <_>
      <internalNodes>
        0 -1 255542 -2.2596172057092190e-03</internalNodes>
      <leafValues>
        5.7954716682434082e-01 -1.5392929315567017e-01</leafValues></_></weakClassifiers></stage5>
</opencv_storage>
