<?xml version="1.0"?>
<opencv_storage>
<stage2>
  <maxWeakCount>13</maxWeakCount>
  <stageThreshold>-1.2777382135391235e+00</stageThreshold>
  <weakClassifiers>
    <_>
      <internalNodes>
        0 -1 223324 -5.7223074138164520e-02</internalNodes>
      <leafValues>
        7.1947675943374634e-01 -2.7459955215454102e-01</leafValues></_>
    <_>
      <internalNodes>
        0 -1 102673 -3.1356565654277802e-02</internalNodes>
      <leafValues>
        6.9613629579544067e-01 -2.4045874178409576e-01</leafValues></_>
    <_>
      <internalNodes>
        0 -1 162362 -4.6996623277664185e-03</internalNodes>
      <leafValues>
        4.2965701222419739e-01 -4.3331682682037354e-01</leafValues></_>
    <_>
      <internalNodes>
        0 -1 270144 -8.2650035619735718e-04</internalNodes>
      <leafValues>
        2.9804384708404541e-01 -5.8273589611053467e-01</leafValues></_>
    <_>
      <internalNodes>
        0 -1 157843 6.8565458059310913e-03</internalNodes>
      <leafValues>
        -5.0862509012222290e-01 3.4073251485824585e-01</leafValues></_>
    <_>
      <internalNodes>
        0 -1 36325 -1.5680968761444092e-02</internalNodes>
      <leafValues>
        2.6273608207702637e-01 -4.3540409207344055e-01</leafValues></_>
    <_>
      <internalNodes>
        0 -1 156942 -5.5255107581615448e-03</internalNodes>
      <leafValues>
        4.1734433174133301e-01 -2.9991608858108521e-01</leafValues></_>
    <_>
      <internalNodes>
        0 -1 256419 7.3808967135846615e-03</internalNodes>
      <leafValues>
        -1.5152868628501892e-01 6.0840612649917603e-01</leafValues></_>
    <_>
      <internalNodes>
        0 -1 127231 -4.8196958377957344e-03</internalNodes>
      <leafValues>
        6.5227955579757690e-01 -1.6396044194698334e-01</leafValues></_>
    <_>
      <internalNodes>
        0 -1 202341 -9.4001891557127237e-04</internalNodes>
      <leafValues>
        3.4168839454650879e-01 -2.6683947443962097e-01</leafValues></_>
    <_>
      <internalNodes>
        0 -1 259174 2.4036096874624491e-03</internalNodes>
      <leafValues>
        1.6044673323631287e-01 -6.0873854160308838e-01</leafValues></_>
    <_>
      <internalNodes>
        0 -1 290753 -9.0697163250297308e-04</internalNodes>
      <leafValues>
        -6.1140829324722290e-01 1.3838885724544525e-01</leafValues></_>
    <_>
      <internalNodes>
        0 -1 140481 1.7016101628541946e-02</internalNodes>
      <leafValues>
        1.1521338671445847e-01 -7.8012895584106445e-01</leafValues></_></weakClassifiers></stage2>
</opencv_storage>
