<?xml version="1.0"?>
<opencv_storage>
<stage16>
  <maxWeakCount>13</maxWeakCount>
  <stageThreshold>-9.5889884233474731e-01</stageThreshold>
  <weakClassifiers>
    <_>
      <internalNodes>
        0 -1 274083 5.4195718839764595e-03</internalNodes>
      <leafValues>
        4.7755101323127747e-01 -6.4137929677963257e-01</leafValues></_>
    <_>
      <internalNodes>
        0 -1 201870 -1.1956732720136642e-02</internalNodes>
      <leafValues>
        4.1726422309875488e-01 -3.7145695090293884e-01</leafValues></_>
    <_>
      <internalNodes>
        0 -1 247035 7.3336418718099594e-03</internalNodes>
      <leafValues>
        -2.5408038496971130e-01 5.2479094266891479e-01</leafValues></_>
    <_>
      <internalNodes>
        0 -1 281737 4.5446562580764294e-03</internalNodes>
      <leafValues>
        -2.3549783229827881e-01 5.7016658782958984e-01</leafValues></_>
    <_>
      <internalNodes>
        0 -1 279158 -2.0240459591150284e-02</internalNodes>
      <leafValues>
        8.8546216487884521e-01 -1.2382241338491440e-01</leafValues></_>
    <_>
      <internalNodes>
        0 -1 279126 -6.8621207028627396e-03</internalNodes>
      <leafValues>
        8.5488915443420410e-01 -1.1831764876842499e-01</leafValues></_>
    <_>
      <internalNodes>
        0 -1 246369 -4.2232796549797058e-03</internalNodes>
      <leafValues>
        2.6075527071952820e-01 -3.7938955426216125e-01</leafValues></_>
    <_>
      <internalNodes>
        0 -1 270338 4.3955268338322639e-03</internalNodes>
      <leafValues>
        2.3116755485534668e-01 -4.7852060198783875e-01</leafValues></_>
    <_>
      <internalNodes>
        0 -1 203270 9.3087051063776016e-03</internalNodes>
      <leafValues>
        -2.0700548589229584e-01 4.5980620384216309e-01</leafValues></_>
    <_>
      <internalNodes>
        0 -1 32128 -1.7222151160240173e-02</internalNodes>
      <leafValues>
        5.5195379257202148e-01 -1.7174805700778961e-01</leafValues></_>
    <_>
      <internalNodes>
        0 -1 277474 -1.6004025936126709e-02</internalNodes>
      <leafValues>
        6.1513346433639526e-01 -1.6220630705356598e-01</leafValues></_>
    <_>
      <internalNodes>
        0 -1 269143 -3.5699685104191303e-03</internalNodes>
      <leafValues>
        4.4976028800010681e-01 -2.5889334082603455e-01</leafValues></_>
    <_>
      <internalNodes>
        0 -1 257928 -1.8446333706378937e-03</internalNodes>
      <leafValues>
        -4.9976497888565063e-01 1.7326125502586365e-01</leafValues></_></weakClassifiers></stage16>
</opencv_storage>
