<?xml version="1.0"?>
<opencv_storage>
<stage2>
  <maxWeakCount>10</maxWeakCount>
  <stageThreshold>-1.6958919763565063e+00</stageThreshold>
  <weakClassifiers>
    <_>
      <internalNodes>
        0 -1 186179 -1.1468932777643204e-01</internalNodes>
      <leafValues>
        7.2313779592514038e-01 -4.7339698672294617e-01</leafValues></_>
    <_>
      <internalNodes>
        0 -1 189250 -3.9693642407655716e-02</internalNodes>
      <leafValues>
        5.7214397192001343e-01 -5.4016339778900146e-01</leafValues></_>
    <_>
      <internalNodes>
        0 -1 179281 2.1438959985971451e-02</internalNodes>
      <leafValues>
        -4.3415573239326477e-01 6.4200150966644287e-01</leafValues></_>
    <_>
      <internalNodes>
        0 -1 202068 -6.8925675004720688e-03</internalNodes>
      <leafValues>
        5.8633655309677124e-01 -4.0350440144538879e-01</leafValues></_>
    <_>
      <internalNodes>
        0 -1 18985 -5.8941014111042023e-02</internalNodes>
      <leafValues>
        3.5619080066680908e-01 -5.6593519449234009e-01</leafValues></_>
    <_>
      <internalNodes>
        0 -1 269163 -8.1214522942900658e-03</internalNodes>
      <leafValues>
        6.4641606807708740e-01 -3.2104241847991943e-01</leafValues></_>
    <_>
      <internalNodes>
        0 -1 268041 -6.0444585978984833e-03</internalNodes>
      <leafValues>
        6.2767821550369263e-01 -2.6401951909065247e-01</leafValues></_>
    <_>
      <internalNodes>
        0 -1 253266 4.6186901628971100e-02</internalNodes>
      <leafValues>
        -2.0274403691291809e-01 7.7292561531066895e-01</leafValues></_>
    <_>
      <internalNodes>
        0 -1 247254 1.8161609768867493e-02</internalNodes>
      <leafValues>
        -2.5083550810813904e-01 6.6355890035629272e-01</leafValues></_>
    <_>
      <internalNodes>
        0 -1 238855 -3.2162614166736603e-02</internalNodes>
      <leafValues>
        5.5318176746368408e-01 -2.8371053934097290e-01</leafValues></_></weakClassifiers></stage2>
</opencv_storage>
