<?xml version="1.0"?>
<opencv_storage>
<stage11>
  <maxWeakCount>14</maxWeakCount>
  <stageThreshold>-8.1101936101913452e-01</stageThreshold>
  <weakClassifiers>
    <_>
      <internalNodes>
        0 -1 92886 -1.4576610177755356e-02</internalNodes>
      <leafValues>
        5.3348469734191895e-01 -3.8934427499771118e-01</leafValues></_>
    <_>
      <internalNodes>
        0 -1 179281 1.3912066817283630e-02</internalNodes>
      <leafValues>
        -4.9836552143096924e-01 3.0301302671432495e-01</leafValues></_>
    <_>
      <internalNodes>
        0 -1 269851 -9.6957236528396606e-03</internalNodes>
      <leafValues>
        4.7377589344978333e-01 -2.9788148403167725e-01</leafValues></_>
    <_>
      <internalNodes>
        0 -1 186378 1.6155142337083817e-02</internalNodes>
      <leafValues>
        -5.3982502222061157e-01 2.5003874301910400e-01</leafValues></_>
    <_>
      <internalNodes>
        0 -1 269507 6.1559397727251053e-03</internalNodes>
      <leafValues>
        -1.9043976068496704e-01 6.1924558877944946e-01</leafValues></_>
    <_>
      <internalNodes>
        0 -1 254272 -3.3064641058444977e-02</internalNodes>
      <leafValues>
        6.0149097442626953e-01 -2.7321082353591919e-01</leafValues></_>
    <_>
      <internalNodes>
        0 -1 230688 -2.7954015880823135e-02</internalNodes>
      <leafValues>
        6.6174608469009399e-01 -2.1472893655300140e-01</leafValues></_>
    <_>
      <internalNodes>
        0 -1 183067 -1.9984774291515350e-02</internalNodes>
      <leafValues>
        5.9500253200531006e-01 -2.1106877923011780e-01</leafValues></_>
    <_>
      <internalNodes>
        0 -1 194037 -2.3776688612997532e-03</internalNodes>
      <leafValues>
        4.7565406560897827e-01 -2.6010379195213318e-01</leafValues></_>
    <_>
      <internalNodes>
        0 -1 29472 -4.8775985836982727e-02</internalNodes>
      <leafValues>
        7.8529930114746094e-01 -1.4107757806777954e-01</leafValues></_>
    <_>
      <internalNodes>
        0 -1 258316 2.9303675983101130e-03</internalNodes>
      <leafValues>
        -2.9469060897827148e-01 4.3217048048973083e-01</leafValues></_>
    <_>
      <internalNodes>
        0 -1 267710 6.4564207568764687e-03</internalNodes>
      <leafValues>
        1.6290922462940216e-01 -7.0787352323532104e-01</leafValues></_>
    <_>
      <internalNodes>
        0 -1 155619 -3.8837604224681854e-02</internalNodes>
      <leafValues>
        1.9642426073551178e-01 -4.9533301591873169e-01</leafValues></_>
    <_>
      <internalNodes>
        0 -1 210737 8.9841578155755997e-03</internalNodes>
      <leafValues>
        -1.8661645054817200e-01 5.8711218833923340e-01</leafValues></_></weakClassifiers></stage11>
</opencv_storage>
