<?xml version="1.0"?>
<opencv_storage>
<stage19>
  <maxWeakCount>10</maxWeakCount>
  <stageThreshold>-1.1160892248153687e+00</stageThreshold>
  <weakClassifiers>
    <_>
      <internalNodes>
        0 -1 201031 -1.5916839241981506e-02</internalNodes>
      <leafValues>
        6.1719274520874023e-01 -2.2207622230052948e-01</leafValues></_>
    <_>
      <internalNodes>
        0 -1 240900 -9.8885502666234970e-03</internalNodes>
      <leafValues>
        4.1669675707817078e-01 -3.3508813381195068e-01</leafValues></_>
    <_>
      <internalNodes>
        0 -1 265882 2.2010528482496738e-03</internalNodes>
      <leafValues>
        -2.8052258491516113e-01 4.5524466037750244e-01</leafValues></_>
    <_>
      <internalNodes>
        0 -1 162078 -5.6987736374139786e-02</internalNodes>
      <leafValues>
        2.2305993735790253e-01 -6.3390427827835083e-01</leafValues></_>
    <_>
      <internalNodes>
        0 -1 228151 8.6637614294886589e-03</internalNodes>
      <leafValues>
        -2.7443116903305054e-01 5.5895698070526123e-01</leafValues></_>
    <_>
      <internalNodes>
        0 -1 157726 -1.0145748965442181e-02</internalNodes>
      <leafValues>
        5.7865923643112183e-01 -2.3123127222061157e-01</leafValues></_>
    <_>
      <internalNodes>
        0 -1 170862 1.5274897217750549e-02</internalNodes>
      <leafValues>
        1.7343181371688843e-01 -6.7492717504501343e-01</leafValues></_>
    <_>
      <internalNodes>
        0 -1 179402 5.4988246411085129e-03</internalNodes>
      <leafValues>
        -5.4537725448608398e-01 2.1082028746604919e-01</leafValues></_>
    <_>
      <internalNodes>
        0 -1 269828 4.1924030520021915e-03</internalNodes>
      <leafValues>
        -2.4350376427173615e-01 5.9593379497528076e-01</leafValues></_>
    <_>
      <internalNodes>
        0 -1 270440 -6.0084060532972217e-04</internalNodes>
      <leafValues>
        6.4826387166976929e-01 -1.9024117290973663e-01</leafValues></_></weakClassifiers></stage19>
</opencv_storage>
