<?xml version="1.0"?>
<opencv_storage>
<stage18>
  <maxWeakCount>12</maxWeakCount>
  <stageThreshold>-7.2855949401855469e-01</stageThreshold>
  <weakClassifiers>
    <_>
      <internalNodes>
        0 -1 186177 -1.4455065131187439e-01</internalNodes>
      <leafValues>
        6.0235446691513062e-01 -2.3717059195041656e-01</leafValues></_>
    <_>
      <internalNodes>
        0 -1 151145 2.6997243985533714e-03</internalNodes>
      <leafValues>
        -3.6608129739761353e-01 4.1116395592689514e-01</leafValues></_>
    <_>
      <internalNodes>
        0 -1 183067 -2.4884371086955070e-02</internalNodes>
      <leafValues>
        6.8268340826034546e-01 -1.9776415824890137e-01</leafValues></_>
    <_>
      <internalNodes>
        0 -1 191164 1.2676423415541649e-02</internalNodes>
      <leafValues>
        -2.0996217429637909e-01 5.7086116075515747e-01</leafValues></_>
    <_>
      <internalNodes>
        0 -1 260674 2.1155791357159615e-02</internalNodes>
      <leafValues>
        -2.0612798631191254e-01 6.1834651231765747e-01</leafValues></_>
    <_>
      <internalNodes>
        0 -1 244563 -1.5607221052050591e-02</internalNodes>
      <leafValues>
        8.4859883785247803e-01 -1.8373654782772064e-01</leafValues></_>
    <_>
      <internalNodes>
        0 -1 269382 3.1296420842409134e-02</internalNodes>
      <leafValues>
        2.4489292502403259e-01 -6.0175007581710815e-01</leafValues></_>
    <_>
      <internalNodes>
        0 -1 275304 -3.8163950666785240e-03</internalNodes>
      <leafValues>
        4.7623991966247559e-01 -2.5417730212211609e-01</leafValues></_>
    <_>
      <internalNodes>
        0 -1 278806 4.3925810605287552e-03</internalNodes>
      <leafValues>
        -1.9551332294940948e-01 6.2243747711181641e-01</leafValues></_>
    <_>
      <internalNodes>
        0 -1 282015 -1.5373954083770514e-03</internalNodes>
      <leafValues>
        -7.7082371711730957e-01 1.5449436008930206e-01</leafValues></_>
    <_>
      <internalNodes>
        0 -1 252582 -1.1255681514739990e-02</internalNodes>
      <leafValues>
        8.2507640123367310e-01 -1.4752386510372162e-01</leafValues></_>
    <_>
      <internalNodes>
        0 -1 256827 1.2506080092862248e-03</internalNodes>
      <leafValues>
        -3.5012045502662659e-01 3.5358572006225586e-01</leafValues></_></weakClassifiers></stage18>
</opencv_storage>
