<?xml version="1.0"?>
<opencv_storage>
<stage14>
  <maxWeakCount>11</maxWeakCount>
  <stageThreshold>-8.8701391220092773e-01</stageThreshold>
  <weakClassifiers>
    <_>
      <internalNodes>
        0 -1 143930 5.2577769383788109e-03</internalNodes>
      <leafValues>
        -4.6379646658897400e-01 5.6756758689880371e-01</leafValues></_>
    <_>
      <internalNodes>
        0 -1 151119 -2.8296690434217453e-03</internalNodes>
      <leafValues>
        4.3489688634872437e-01 -4.4960299134254456e-01</leafValues></_>
    <_>
      <internalNodes>
        0 -1 197112 3.8819329347461462e-03</internalNodes>
      <leafValues>
        -2.6322269439697266e-01 6.3494205474853516e-01</leafValues></_>
    <_>
      <internalNodes>
        0 -1 280585 2.3175529204308987e-03</internalNodes>
      <leafValues>
        -3.4489649534225464e-01 4.0788432955741882e-01</leafValues></_>
    <_>
      <internalNodes>
        0 -1 58387 -5.3507876582443714e-03</internalNodes>
      <leafValues>
        1.9671571254730225e-01 -7.0592093467712402e-01</leafValues></_>
    <_>
      <internalNodes>
        0 -1 256832 8.1762962508946657e-04</internalNodes>
      <leafValues>
        -3.9769652485847473e-01 3.2782211899757385e-01</leafValues></_>
    <_>
      <internalNodes>
        0 -1 255557 -9.6278078854084015e-03</internalNodes>
      <leafValues>
        8.0017995834350586e-01 -2.1101541817188263e-01</leafValues></_>
    <_>
      <internalNodes>
        0 -1 110632 -3.6225849762558937e-03</internalNodes>
      <leafValues>
        5.1324599981307983e-01 -2.8062307834625244e-01</leafValues></_>
    <_>
      <internalNodes>
        0 -1 166207 -1.4998823404312134e-02</internalNodes>
      <leafValues>
        7.4363315105438232e-01 -2.2489883005619049e-01</leafValues></_>
    <_>
      <internalNodes>
        0 -1 170051 8.5149724036455154e-03</internalNodes>
      <leafValues>
        -2.3386360704898834e-01 6.9168359041213989e-01</leafValues></_>
    <_>
      <internalNodes>
        0 -1 255716 -8.2253647269681096e-04</internalNodes>
      <leafValues>
        -6.5548998117446899e-01 2.3923659324645996e-01</leafValues></_></weakClassifiers></stage14>
</opencv_storage>
