<?xml version="1.0"?>
<opencv_storage>
<stage12>
  <maxWeakCount>8</maxWeakCount>
  <stageThreshold>-9.9416816234588623e-01</stageThreshold>
  <weakClassifiers>
    <_>
      <internalNodes>
        0 -1 282054 1.5526564791798592e-02</internalNodes>
      <leafValues>
        5.3290182352066040e-01 -6.0101008415222168e-01</leafValues></_>
    <_>
      <internalNodes>
        0 -1 135627 1.3911255635321140e-02</internalNodes>
      <leafValues>
        -6.1240369081497192e-01 3.3313700556755066e-01</leafValues></_>
    <_>
      <internalNodes>
        0 -1 32391 -2.1561477333307266e-02</internalNodes>
      <leafValues>
        4.9157452583312988e-01 -4.5403409004211426e-01</leafValues></_>
    <_>
      <internalNodes>
        0 -1 135823 -9.1211963444948196e-03</internalNodes>
      <leafValues>
        4.4847679138183594e-01 -3.9569419622421265e-01</leafValues></_>
    <_>
      <internalNodes>
        0 -1 170730 -7.4061793275177479e-03</internalNodes>
      <leafValues>
        8.8678377866744995e-01 -1.9753246009349823e-01</leafValues></_>
    <_>
      <internalNodes>
        0 -1 252728 -5.0721421837806702e-02</internalNodes>
      <leafValues>
        8.9529907703399658e-01 -2.4646329879760742e-01</leafValues></_>
    <_>
      <internalNodes>
        0 -1 57037 -2.0557342097163200e-02</internalNodes>
      <leafValues>
        6.2095433473587036e-01 -1.9773885607719421e-01</leafValues></_>
    <_>
      <internalNodes>
        0 -1 151116 -6.0893478803336620e-03</internalNodes>
      <leafValues>
        6.9125998020172119e-01 -2.6737439632415771e-01</leafValues></_></weakClassifiers></stage12>
</opencv_storage>
