<?xml version="1.0"?>
<opencv_storage>
<stage7>
  <maxWeakCount>11</maxWeakCount>
  <stageThreshold>-1.1910597085952759e+00</stageThreshold>
  <weakClassifiers>
    <_>
      <internalNodes>
        0 -1 139568 1.8775591626763344e-02</internalNodes>
      <leafValues>
        -2.4034869670867920e-01 6.5169316530227661e-01</leafValues></_>
    <_>
      <internalNodes>
        0 -1 29727 1.0522587224841118e-02</internalNodes>
      <leafValues>
        -4.6794712543487549e-01 3.9533165097236633e-01</leafValues></_>
    <_>
      <internalNodes>
        0 -1 254268 3.8111843168735504e-02</internalNodes>
      <leafValues>
        -2.2149296104907990e-01 7.6488250494003296e-01</leafValues></_>
    <_>
      <internalNodes>
        0 -1 170761 -1.2411730363965034e-02</internalNodes>
      <leafValues>
        7.8168010711669922e-01 -3.0317926406860352e-01</leafValues></_>
    <_>
      <internalNodes>
        0 -1 64711 -5.9408374130725861e-02</internalNodes>
      <leafValues>
        3.3758091926574707e-01 -5.9928214550018311e-01</leafValues></_>
    <_>
      <internalNodes>
        0 -1 133142 -1.8633157014846802e-02</internalNodes>
      <leafValues>
        4.3196269869804382e-01 -4.9095398187637329e-01</leafValues></_>
    <_>
      <internalNodes>
        0 -1 246018 -4.5810081064701080e-02</internalNodes>
      <leafValues>
        5.8293795585632324e-01 -3.1610560417175293e-01</leafValues></_>
    <_>
      <internalNodes>
        0 -1 239433 -3.5454295575618744e-02</internalNodes>
      <leafValues>
        5.8045697212219238e-01 -2.9992794990539551e-01</leafValues></_>
    <_>
      <internalNodes>
        0 -1 255552 -6.4179506152868271e-03</internalNodes>
      <leafValues>
        6.9949489831924438e-01 -1.9122380018234253e-01</leafValues></_>
    <_>
      <internalNodes>
        0 -1 22227 -1.6637766733765602e-02</internalNodes>
      <leafValues>
        3.3326303958892822e-01 -5.1552039384841919e-01</leafValues></_>
    <_>
      <internalNodes>
        0 -1 145902 3.7399795837700367e-03</internalNodes>
      <leafValues>
        -2.6470136642456055e-01 5.9321659803390503e-01</leafValues></_></weakClassifiers></stage7>
</opencv_storage>
